Language model created by QuickLM on Mon Oct 17 14:54:26 EDT 2016
Copyright (c) 1996-2010 Carnegie Mellon University and Alexander I. Rudnicky

The model is in standard ARPA format, designed by Doug Paul while he was at MITRE.

The code that was used to produce this language model is available in Open Source.
Please visit http://www.speech.cs.cmu.edu/tools/ for more information

The (fixed) discount mass is 0.5. The backoffs are computed using the ratio method.
This model based on a corpus of 15 sentences and 17 words

\data\
ngram 1=16


\1-grams:
-0.7782 </s> -0.3010
-0.7782 <s> -0.2218
-3.9542 EIGHT -0.2218
-0.0042 EQUALS? -0.002218
-1.9542 FIVE -0.2218
-1.9542 FOUR -0.2218
-1.9542 MINUS -0.2218
-1.9542 NINE -0.2218
-1.9542 ONE -0.2218
-1.9542 PLUS -0.2218
-1.9542 SEVEN -0.2218
-1.9542 SIX -0.2218
-1.9542 THREE -0.2218
-1.9542 TIMES -0.2218
-1.9542 TWO -0.2218
-1.9542 ZERO -0.2218



\end\
